1.490929484367370605e+00 9.491406083106994629e-01 -8.934952318668365479e-02 -5.996738076210021973e-01 -5.630200263112783432e-03 -8.028382658958435059e-01 -3.703300952911376953e-01 -3.996486216783523560e-02 1.934488303959369659e-02 -1.485163927078247070e+00 7.256239652633666992e-01 2.575153112411499023e+00 2.898714780807495117e+00 1.946332812309265137e+00 1.112923264503479004e+00 1.182029962539672852e+00 7.738725543022155762e-01 -1.866409182548522949e-01 6.300986409187316895e-01 8.159550428390502930e-01 -6.630676388740539551e-01 -8.722308278083801270e-02 -3.443569317460060120e-02 4.716902971267700195e-01 -3.690510690212249756e-01 -1.105647921562194824e+00 4.822185635566711426e-01 1.297091960906982422e+00
1.441380858421325684e+00 6.069394946098327637e-01 -2.425545752048492432e-01 4.892811179161071777e-01 -4.345775023102760315e-02 -4.812581837177276611e-01 3.827511370182037354e-01 1.217498909682035446e-02 5.056062340736389160e-01 -1.355414032936096191e+00 -1.939909607172012329e-01 2.670466423034667969e+00 2.349997282028198242e+00 1.741347789764404297e+00 1.293706893920898438e+00 1.008442044258117676e+00 4.542951583862304688e-01 -5.073391199111938477e-01 7.867625355720520020e-01 3.332067131996154785e-01 8.182599544525146484e-01 9.102576375007629395e-01 1.850037872791290283e-01 9.770641326904296875e-01 1.434256732463836670e-01 -1.251349568367004395e+00 4.490166008472442627e-01 1.809296727180480957e+00
1.103771090507507324e+00 4.698437452316284180e-01 8.441979289054870605e-01 1.056998252868652344e+00 2.468353323638439178e-02 -1.035198450088500977e+00 2.730540037155151367e-01 8.795428872108459473e-01 4.237920045852661133e-01 -6.072010397911071777e-01 -1.319815874099731445e+00 2.047476291656494141e+00 8.665631413459777832e-01 7.213749289512634277e-01 4.536838233470916748e-01 8.752849698066711426e-01 3.912343978881835938e-01 -7.718442082405090332e-01 7.743412852287292480e-01 9.800958037376403809e-01 7.734405994415283203e-01 8.097346425056457520e-01 5.397365093231201172e-01 9.533265233039855957e-01 1.496119797229766846e-01 -1.076129794120788574e+00 -1.854658871889114380e-02 1.691512584686279297e+00
1.745917499065399170e-01 7.142559289932250977e-01 5.750631690025329590e-01 8.939716815948486328e-01 6.116755604743957520e-01 -7.107183337211608887e-01 1.005892753601074219e+00 1.798418879508972168e+00 1.074636697769165039e+00 8.893299102783203125e-02 -8.394798040390014648e-01 6.339141726493835449e-01 -8.017485588788986206e-02 2.189258933067321777e-01 7.956410646438598633e-01 6.609340906143188477e-01 1.329863071441650391e-02 -1.433703184127807617e+00 1.013989090919494629e+00 1.340798377990722656e+00 3.783335089683532715e-01 1.246734023094177246e+00 2.115407213568687439e-02 1.056219577789306641e+00 5.237097144126892090e-01 -7.195456027984619141e-01 -7.895074486732482910e-01 9.273735284805297852e-01
2.946177870035171509e-02 -2.343180626630783081e-01 1.410015463829040527e+00 1.989638924598693848e+00 1.693005561828613281e+00 -2.587367296218872070e-01 3.780284821987152100e-01 1.516301870346069336e+00 1.320679068565368652e+00 3.663938641548156738e-01 -6.084356307983398438e-01 -3.756002485752105713e-01 -1.139511227607727051e+00 6.739767640829086304e-02 7.788075804710388184e-01 7.335014939308166504e-01 5.339811444282531738e-01 -8.687040805816650391e-01 2.029180973768234253e-01 1.331699371337890625e+00 1.063319683074951172e+00 1.345143318176269531e+00 8.173997998237609863e-01 1.635680675506591797e+00 3.978896141052246094e-01 -1.550459414720535278e-01 -7.067201733589172363e-01 7.519538402557373047e-01
-5.694969743490219116e-02 -2.937110960483551025e-01 9.404960870742797852e-01 1.815194845199584961e+00 1.844769239425659180e+00 6.597418785095214844e-01 5.033241119235754013e-03 9.896419644355773926e-01 1.329337716102600098e+00 9.329153299331665039e-01 -8.371844887733459473e-01 -9.821987748146057129e-01 -3.392988443374633789e-01 -6.008594036102294922e-01 1.363918781280517578e+00 6.362543702125549316e-01 3.608289659023284912e-01 -1.636823534965515137e+00 2.378605753183364868e-01 1.243044853210449219e+00 9.140555262565612793e-01 1.196550250053405762e+00 5.928776860237121582e-01 1.418462753295898438e+00 6.347564458847045898e-01 -2.652873992919921875e-01 -2.568605542182922363e-02 7.516332268714904785e-01
-7.309889197349548340e-01 -2.902462333440780640e-02 1.166124582290649414e+00 1.871832132339477539e+00 1.425047039985656738e+00 4.979535043239593506e-01 1.057163849472999573e-01 1.641625285148620605e+00 1.322398304939270020e+00 4.645958542823791504e-01 -4.825735092163085938e-01 -4.688583016395568848e-01 1.456654816865921021e-01 -4.670490026473999023e-01 2.742030620574951172e-01 1.246685162186622620e-01 -8.902872353792190552e-02 -1.371167182922363281e+00 2.828254997730255127e-01 1.154299616813659668e+00 9.885653257369995117e-01 1.406879127025604248e-01 8.224478960037231445e-01 9.579909443855285645e-01 9.415224939584732056e-02 -7.733245193958282471e-02 2.506681680679321289e-01 8.176667094230651855e-01
-1.205835938453674316e+00 -4.608532488346099854e-01 6.970152258872985840e-01 1.149089813232421875e+00 1.118336319923400879e+00 -2.020674347877502441e-01 2.522639930248260498e-01 1.119145393371582031e+00 7.204485535621643066e-01 1.265329599380493164e+00 -6.185202673077583313e-02 7.166281342506408691e-02 8.323845863342285156e-01 -4.203027859330177307e-02 4.981023669242858887e-01 -6.207751035690307617e-01 -2.700942456722259521e-01 -8.329474329948425293e-01 8.221554160118103027e-01 1.284433126449584961e+00 2.866925895214080811e-01 2.302409559488296509e-01 1.231653809547424316e+00 5.118044018745422363e-01 9.142820239067077637e-01 7.154382467269897461e-01 1.368483543395996094e+00 7.719340324401855469e-01
-1.086871981620788574e+00 -8.893961906433105469e-01 4.126439988613128662e-01 8.466296792030334473e-01 1.054824948310852051e+00 1.414926946163177490e-01 3.444637060165405273e-01 1.153072357177734375e+00 1.256304979324340820e+00 1.307029128074645996e+00 4.150201082229614258e-01 1.745759993791580200e-01 1.129073858261108398e+00 1.057840347290039062e+00 3.419606387615203857e-01 -8.357405662536621094e-01 -2.459743469953536987e-01 -1.331582386046648026e-02 8.511605262756347656e-01 8.107136487960815430e-01 1.137004256248474121e+00 7.679240703582763672e-01 1.470713615417480469e+00 -2.034662961959838867e-01 4.620080590248107910e-01 1.042146921157836914e+00 1.217839598655700684e+00 3.792502880096435547e-01
-5.785107016563415527e-01 -6.958385109901428223e-01 5.343816876411437988e-01 7.542485594749450684e-01 7.257310748100280762e-01 -6.199083328247070312e-01 -3.646040856838226318e-01 2.477867007255554199e-01 7.585537433624267578e-01 1.196398735046386719e+00 2.383491992950439453e-01 1.256587028503417969e+00 1.903185248374938965e+00 1.360112071037292480e+00 1.779060810804367065e-01 -5.035709142684936523e-01 -7.268242835998535156e-01 4.647609591484069824e-01 1.198827624320983887e+00 9.852977991104125977e-01 4.525014460086822510e-01 4.264419376850128174e-01 5.489448904991149902e-01 4.989092648029327393e-01 -1.028344929218292236e-01 3.997679352760314941e-01 1.122411012649536133e+00 7.033851146697998047e-01
-3.346791863441467285e-01 4.601653218269348145e-01 8.616112470626831055e-01 6.434166431427001953e-01 1.127104163169860840e+00 6.053276360034942627e-03 -8.522564768791198730e-01 5.597580671310424805e-01 5.049868822097778320e-01 8.596691489219665527e-01 6.632862687110900879e-01 1.004120826721191406e+00 2.000890016555786133e+00 1.295674085617065430e+00 8.482646942138671875e-01 -1.820558160543441772e-01 -1.398992985486984253e-01 6.967423558235168457e-01 3.494206368923187256e-01 8.360831141471862793e-01 2.221203446388244629e-01 4.081555083394050598e-02 7.855367064476013184e-01 -4.441717863082885742e-01 5.823215246200561523e-01 2.175309211015701294e-01 1.386189699172973633e+00 6.425666213035583496e-01
2.030399888753890991e-01 4.887135922908782959e-01 8.832448720932006836e-01 2.300363630056381226e-01 2.812371551990509033e-01 -4.290809035301208496e-01 -4.374627023935317993e-02 -4.483915269374847412e-01 2.538855969905853271e-01 9.274034947156906128e-02 4.101976156234741211e-01 1.152399301528930664e+00 1.960655450820922852e+00 1.563060164451599121e+00 8.966823816299438477e-01 -2.290241867303848267e-01 3.151770234107971191e-01 1.156856417655944824e+00 1.037520527839660645e+00 1.004233241081237793e+00 3.207293152809143066e-01 -1.449395567178726196e-01 9.907180666923522949e-01 4.397874474525451660e-01 3.208012580871582031e-01 3.978511393070220947e-01 1.104327082633972168e+00 4.082317352294921875e-01
7.470327615737915039e-01 2.440651804208755493e-01 9.629845619201660156e-01 7.560408115386962891e-01 4.976705908775329590e-01 -5.989225506782531738e-01 2.421499416232109070e-02 1.931654810905456543e-01 5.194007754325866699e-01 4.637437462806701660e-01 5.563023090362548828e-01 5.592412352561950684e-01 1.374308228492736816e+00 1.091835141181945801e+00 1.458134293556213379e+00 1.045072451233863831e-01 -3.466542065143585205e-02 1.213667631149291992e+00 4.769967794418334961e-01 1.015509247779846191e+00 7.927275896072387695e-01 -1.834246665239334106e-01 8.178768754005432129e-01 -3.857986629009246826e-02 1.192146062850952148e+00 5.611562728881835938e-01 7.035459280014038086e-01 1.547816842794418335e-01
7.212802767753601074e-02 1.005722403526306152e+00 -3.570050746202468872e-02 1.245877817273139954e-01 -1.338767353445291519e-02 -3.604814708232879639e-01 -7.308865785598754883e-01 6.172638535499572754e-01 4.328067898750305176e-01 9.292576909065246582e-01 3.631222844123840332e-01 3.562259376049041748e-01 1.326490879058837891e+00 1.300117731094360352e+00 9.594025015830993652e-01 5.455642938613891602e-01 -4.966848194599151611e-01 3.840156495571136475e-01 7.799628376960754395e-01 1.370367884635925293e+00 3.697249591350555420e-01 4.772143959999084473e-01 8.249372243881225586e-01 7.426103949546813965e-01 1.677892684936523438e+00 3.502285778522491455e-01 2.267393022775650024e-01 5.204372406005859375e-01
7.664092779159545898e-01 5.183081626892089844e-01 7.086531519889831543e-01 7.971153408288955688e-02 2.766826152801513672e-01 -2.524552345275878906e-01 2.695247530937194824e-01 3.622915446758270264e-01 7.308161258697509766e-01 1.099395036697387695e+00 8.433403372764587402e-01 3.335671126842498779e-01 5.166394710540771484e-01 8.577212095260620117e-01 5.899492502212524414e-01 1.059379100799560547e+00 -1.520762145519256592e-01 1.980220973491668701e-01 6.729620099067687988e-01 1.476862072944641113e+00 9.243215322494506836e-01 5.826728940010070801e-01 2.169975638389587402e-01 -3.997021168470382690e-02 1.746956467628479004e+00 1.388165503740310669e-01 -2.360925525426864624e-01 1.904101818799972534e-01
9.028261899948120117e-02 3.829634785652160645e-01 5.217329859733581543e-01 4.693215247243642807e-03 -3.301729559898376465e-01 -1.176702380180358887e+00 4.405533075332641602e-01 2.468782067298889160e-01 1.275049448013305664e+00 6.919624805450439453e-01 2.280290871858596802e-01 1.323724865913391113e+00 5.706446170806884766e-01 1.165052413940429688e+00 7.708151340484619141e-01 3.853797316551208496e-01 -2.887668907642364502e-01 2.266368716955184937e-01 1.821605414152145386e-01 1.244994640350341797e+00 8.734229803085327148e-01 8.774119615554809570e-01 2.093190848827362061e-01 4.936029762029647827e-02 5.223840475082397461e-01 1.252868473529815674e-01 -1.761061698198318481e-01 6.614159941673278809e-01
4.347623139619827271e-02 7.664121389389038086e-01 -2.708211839199066162e-01 2.511529028415679932e-01 -8.983678817749023438e-01 -1.015120863914489746e+00 5.498107075691223145e-01 9.402430057525634766e-01 9.190453886985778809e-01 -2.596690654754638672e-01 -2.232151776552200317e-01 1.189628839492797852e+00 1.245941996574401855e+00 1.296724915504455566e+00 4.879393279552459717e-01 6.440854072570800781e-01 -5.767611861228942871e-01 6.847519874572753906e-01 5.140501633286476135e-02 8.536814451217651367e-01 5.952823758125305176e-01 1.077009320259094238e+00 4.323960542678833008e-01 5.096254497766494751e-02 6.043316721916198730e-01 1.146996974945068359e+00 2.802591323852539062e-01 2.729967236518859863e-01
-1.104741096496582031e+00 1.920312084257602692e-02 -1.000990152359008789e+00 -5.639155209064483643e-02 1.695214807987213135e-01 -4.501672089099884033e-01 9.947230219841003418e-01 1.149643540382385254e+00 5.889294147491455078e-01 -1.470540165901184082e-01 3.611927330493927002e-01 1.056580185890197754e+00 1.246571063995361328e+00 1.966140270233154297e+00 7.652792334556579590e-01 6.907229423522949219e-01 -2.883170843124389648e-01 6.316952109336853027e-01 4.122485220432281494e-01 3.730907440185546875e-01 1.057024002075195312e+00 1.795887470245361328e+00 7.989370226860046387e-01 -5.004649981856346130e-02 1.566384136676788330e-01 7.106382846832275391e-01 7.713479399681091309e-01 -6.727813482284545898e-01
-1.255167365074157715e+00 -3.545265495777130127e-01 -2.580243945121765137e-01 4.630436599254608154e-01 7.023423910140991211e-01 2.227817177772521973e-01 1.002906203269958496e+00 1.108963847160339355e+00 -8.825194090604782104e-02 -9.690757393836975098e-01 7.857090979814529419e-02 7.351045608520507812e-01 2.664950191974639893e-01 1.519997119903564453e+00 1.035555005073547363e+00 1.606654524803161621e+00 -4.491328001022338867e-01 4.284503683447837830e-02 -9.086622595787048340e-01 1.792724281549453735e-01 2.086363792419433594e+00 1.476984262466430664e+00 1.380538940429687500e+00 -2.451689541339874268e-01 9.426206350326538086e-01 1.246932387351989746e+00 3.782533705234527588e-01 -2.166022211313247681e-01
-1.603032201528549194e-01 -1.344516992568969727e+00 -4.728130102157592773e-01 9.375974535942077637e-01 9.688347578048706055e-01 4.439981877803802490e-01 5.685704350471496582e-01 7.178412675857543945e-01 2.742243707180023193e-01 -7.255821824073791504e-01 -5.768401622772216797e-01 9.814317822456359863e-01 9.185066819190979004e-01 9.921765327453613281e-01 9.619660973548889160e-01 1.660846352577209473e+00 -1.634200364351272583e-01 4.026873111724853516e-01 -5.026954412460327148e-01 -8.134096115827560425e-02 1.748555302619934082e+00 1.675903320312500000e+00 1.798239350318908691e+00 2.078892290592193604e-02 1.223953962326049805e+00 6.056933999061584473e-01 4.529641568660736084e-01 9.259691834449768066e-02
5.077580809593200684e-01 -4.930141568183898926e-01 -7.849761843681335449e-01 7.756832838058471680e-01 1.230431437492370605e+00 1.341705024242401123e-01 3.752694129943847656e-01 1.738710701465606689e-01 3.200713098049163818e-01 -2.256534695625305176e-01 2.820169925689697266e-01 9.409171938896179199e-01 5.355039238929748535e-01 1.324145555496215820e+00 5.490492582321166992e-01 1.048196792602539062e+00 3.008041381835937500e-01 -9.798884391784667969e-02 -6.858084201812744141e-01 -4.405055344104766846e-01 8.583828210830688477e-01 1.189307451248168945e+00 1.310736656188964844e+00 5.362308025360107422e-01 7.487344145774841309e-01 1.364410877227783203e+00 7.413669824600219727e-01 4.080358743667602539e-01
2.204816341400146484e-01 -1.587364077568054199e-01 -7.185618281364440918e-01 -1.773404628038406372e-01 1.382533550262451172e+00 3.016897141933441162e-01 6.952941417694091797e-01 3.811611980199813843e-02 1.460609259083867073e-03 -2.986451983451843262e-01 2.308659702539443970e-01 5.540978312492370605e-01 1.086145520210266113e+00 8.446854352951049805e-01 7.153977751731872559e-01 1.296392202377319336e+00 2.542960047721862793e-01 -2.830529212951660156e-01 -3.714860975742340088e-01 -1.215886712074279785e+00 -3.252542316913604736e-01 -3.552525863051414490e-02 8.085765838623046875e-01 6.237249374389648438e-01 6.386309862136840820e-02 9.096034169197082520e-01 6.753409504890441895e-01 1.245315313339233398e+00
1.359490901231765747e-01 -5.126508474349975586e-01 3.142329454421997070e-01 4.300979375839233398e-01 1.061655282974243164e+00 3.185762763023376465e-01 5.190515890717506409e-02 7.961590588092803955e-02 8.486367762088775635e-02 -4.183195531368255615e-01 5.594869852066040039e-01 1.136166334152221680e+00 7.384165525436401367e-01 1.224840879440307617e+00 9.910913109779357910e-01 1.578514218330383301e+00 8.157041072845458984e-01 6.191448494791984558e-02 5.993612110614776611e-02 -8.387883901596069336e-01 -4.420843720436096191e-01 -1.076335310935974121e-01 1.005115389823913574e+00 5.610944628715515137e-01 3.048224747180938721e-01 9.304678440093994141e-01 6.734034419059753418e-01 1.075410723686218262e+00
-1.762821078300476074e-01 3.207348883152008057e-01 8.403016328811645508e-01 1.314757317304611206e-01 1.345450162887573242e+00 1.823440045118331909e-01 -3.206456899642944336e-01 -6.436911225318908691e-01 7.938797473907470703e-01 -3.858650624752044678e-01 6.130993962287902832e-01 9.350343942642211914e-01 1.393346071243286133e+00 1.365517497062683105e+00 1.659039378166198730e+00 1.154141426086425781e+00 8.288276195526123047e-01 2.312704920768737793e-01 -1.235257610678672791e-01 -1.488595604896545410e+00 -9.343771934509277344e-01 -1.201859116554260254e+00 3.485285937786102295e-01 1.240663051605224609e+00 -1.378494054079055786e-01 9.881743192672729492e-01 3.768179118633270264e-01 6.425067782402038574e-01
-4.099306464195251465e-01 -1.381652951240539551e-01 2.287531271576881409e-02 -4.237999618053436279e-01 4.285430014133453369e-01 -4.921260476112365723e-01 -5.109472274780273438e-01 -5.730018019676208496e-01 8.595764040946960449e-01 3.452291488647460938e-01 9.453669190406799316e-01 1.617346525192260742e+00 1.358142614364624023e+00 1.235697031021118164e+00 1.509782552719116211e+00 1.556517124176025391e+00 9.615873098373413086e-01 1.487190723419189453e+00 7.884161472320556641e-01 -8.326801061630249023e-01 -1.692552804946899414e+00 -1.258398056030273438e+00 8.628379702568054199e-01 1.379914522171020508e+00 7.188583016395568848e-01 5.016242861747741699e-01 1.291445940732955933e-01 7.380151748657226562e-01
4.411565661430358887e-01 1.597144603729248047e-01 -3.616123795509338379e-01 -1.135641217231750488e+00 4.211909770965576172e-01 2.635900489985942841e-02 -3.435990214347839355e-02 -6.912047266960144043e-01 6.202527284622192383e-01 -2.282565683126449585e-01 2.059495925903320312e+00 1.681837916374206543e+00 1.439166665077209473e+00 8.799179196357727051e-01 1.262500762939453125e+00 1.614575743675231934e+00 9.533764123916625977e-01 7.933824658393859863e-01 4.085402488708496094e-01 -1.249273419380187988e+00 -1.251105904579162598e+00 -1.774906367063522339e-01 9.588889479637145996e-01 1.150443911552429199e+00 8.490504622459411621e-01 1.031245708465576172e+00 -6.897094249725341797e-01 7.042217850685119629e-01
7.388381958007812500e-01 9.816131554543972015e-03 -9.301862716674804688e-01 -5.994669198989868164e-01 9.544888138771057129e-02 -1.226845383644104004e-01 4.806411266326904297e-02 -3.436038196086883545e-01 1.044899821281433105e+00 2.641185522079467773e-01 1.629765987396240234e+00 2.500725507736206055e+00 2.424351215362548828e+00 1.076676487922668457e+00 6.525657773017883301e-01 8.870229125022888184e-01 7.587111592292785645e-01 4.522540867328643799e-01 5.680034756660461426e-01 -6.560800671577453613e-01 -1.575320959091186523e+00 -5.889987349510192871e-01 6.685482859611511230e-01 1.219476222991943359e+00 7.049669027328491211e-01 -1.628058850765228271e-01 -3.132482767105102539e-01 2.458517253398895264e-01
1.400911808013916016e+00 3.018460273742675781e-01 -8.931918144226074219e-01 -1.139978766441345215e+00 -5.775502920150756836e-01 -3.546872138977050781e-01 1.694651544094085693e-01 -6.618713736534118652e-01 4.059803783893585205e-01 -3.249447345733642578e-01 8.847423791885375977e-01 2.310153484344482422e+00 2.239264726638793945e+00 1.948295712471008301e+00 9.760231971740722656e-01 1.306468963623046875e+00 4.348418414592742920e-01 1.934287399053573608e-01 1.018884658813476562e+00 -8.840176463127136230e-02 -1.427278041839599609e+00 -5.007840394973754883e-01 1.033189427107572556e-02 -5.530379712581634521e-02 -7.961381077766418457e-01 -1.030917644500732422e+00 2.714685499668121338e-01 1.263017535209655762e+00
