4.540694057941436768e-01 9.372839331626892090e-01 1.938566267490386963e-01 -2.616901993751525879e-01 9.166958183050155640e-02 -1.142780035734176636e-01 6.969661116600036621e-01 4.493423700332641602e-01 -3.506500273942947388e-02 2.874072082340717316e-02 2.596214413642883301e-01 1.419716358184814453e+00 7.783095240592956543e-01 8.838028907775878906e-01 -1.883148849010467529e-01 1.954049468040466309e-01 -1.964231729507446289e-01 3.640418350696563721e-01 1.443762540817260742e+00 1.766634583473205566e+00 2.007536411285400391e+00 1.183862924575805664e+00 5.270280241966247559e-01 5.820945501327514648e-01 6.337426304817199707e-01 6.243778467178344727e-01 -9.875440597534179688e-02 -1.720377355813980103e-01
4.329756498336791992e-01 -9.150635451078414917e-02 -3.711545765399932861e-01 -8.499453961849212646e-02 6.965973377227783203e-01 3.055337369441986084e-01 4.816255569458007812e-01 1.739182025194168091e-01 5.265873670578002930e-01 1.340244174003601074e+00 8.587853908538818359e-01 5.349358320236206055e-01 6.344376802444458008e-01 1.323516815900802612e-01 -3.871028125286102295e-02 6.108595803380012512e-02 6.059160232543945312e-01 7.660612463951110840e-01 6.321779489517211914e-01 8.988679647445678711e-01 1.058266878128051758e+00 5.256642773747444153e-02 -3.187607228755950928e-01 1.822964251041412354e-01 8.173352479934692383e-01 7.155567407608032227e-01 9.768267720937728882e-02 -6.245123147964477539e-01
3.991504013538360596e-01 -3.806071281433105469e-01 2.251900881528854370e-01 1.251771301031112671e-01 1.531860530376434326e-01 1.263652324676513672e+00 5.598491430282592773e-02 8.578528165817260742e-01 1.328594326972961426e+00 1.301284074783325195e+00 8.848277926445007324e-01 2.706758677959442139e-02 -1.148283258080482483e-01 5.729283690452575684e-01 8.412338495254516602e-01 5.583962798118591309e-01 2.808913886547088623e-01 5.833814740180969238e-01 4.445079863071441650e-01 7.599201202392578125e-01 -3.250685930252075195e-01 -6.585804820060729980e-01 -2.575705647468566895e-01 5.685802698135375977e-01 9.125569462776184082e-01 8.789080977439880371e-01 6.192504763603210449e-01 5.225135684013366699e-01
-7.809777557849884033e-02 1.458715498447418213e-01 1.503101736307144165e-01 1.188362479209899902e+00 4.703758955001831055e-01 5.581256151199340820e-01 5.910671949386596680e-01 8.151445984840393066e-01 9.608757495880126953e-01 1.103851675987243652e+00 2.736927568912506104e-01 -3.679626882076263428e-01 2.265152782201766968e-01 -1.543978750705718994e-01 7.391189783811569214e-02 2.174009829759597778e-01 -4.558862186968326569e-03 4.123452603816986084e-01 3.402405381202697754e-01 -1.079330295324325562e-01 -1.005637692287564278e-03 -4.212075173854827881e-01 2.582912147045135498e-02 -1.861282438039779663e-01 9.372934699058532715e-01 7.265921831130981445e-01 1.232555150985717773e+00 1.346718072891235352e+00
3.232303857803344727e-01 4.745002686977386475e-01 1.229590773582458496e+00 8.358988761901855469e-01 5.970804095268249512e-01 9.057210683822631836e-01 4.288485348224639893e-01 1.399990439414978027e+00 1.514631986618041992e+00 1.371006727218627930e+00 5.977476835250854492e-01 1.019857227802276611e-01 -1.262544691562652588e-01 -7.810065150260925293e-01 -2.019711285829544067e-01 7.881972193717956543e-01 1.259460300207138062e-01 1.820420175790786743e-01 3.254857659339904785e-01 1.385214775800704956e-01 -2.995412349700927734e-01 -5.916724205017089844e-01 -2.832989394664764404e-01 -1.139303684234619141e+00 -3.429450690746307373e-01 1.317056417465209961e+00 1.327134370803833008e+00 1.074404597282409668e+00
1.504958152770996094e+00 8.246616721153259277e-01 5.802019238471984863e-01 5.380954146385192871e-01 3.292322754859924316e-01 5.726370811462402344e-01 9.663680195808410645e-01 1.103265643119812012e+00 4.180125892162322998e-01 8.602302670478820801e-01 1.290868073701858521e-01 4.905005991458892822e-01 1.516638398170471191e-01 -4.730909764766693115e-01 -3.294138908386230469e-01 7.553110122680664062e-01 5.628612041473388672e-01 5.741673111915588379e-01 7.742491960525512695e-01 5.718629360198974609e-01 6.005067750811576843e-02 -1.921422928571701050e-01 -3.280950486660003662e-01 -2.399709373712539673e-01 -3.684397935867309570e-01 1.372238844633102417e-01 1.177371621131896973e+00 1.335560560226440430e+00
1.245578169822692871e+00 9.300400018692016602e-01 7.083502411842346191e-01 3.707776665687561035e-01 3.228521943092346191e-01 -2.536180987954139709e-02 -3.328179195523262024e-02 -1.626192331314086914e-01 2.186809778213500977e-01 3.170197606086730957e-01 1.050955057144165039e+00 1.068542152643203735e-01 1.306967437267303467e-01 -2.668836899101734161e-02 -1.118625551462173462e-01 3.927084505558013916e-01 5.345258116722106934e-01 1.358558297157287598e+00 1.633077859878540039e+00 5.415941476821899414e-01 -1.829754859209060669e-01 1.645336449146270752e-01 -5.038520097732543945e-01 1.509451121091842651e-01 2.451899796724319458e-01 3.912329971790313721e-01 9.129514098167419434e-01 1.323304533958435059e+00
1.127566695213317871e+00 1.232796192169189453e+00 8.509378433227539062e-01 2.695633172988891602e-01 -9.619705379009246826e-02 1.299554705619812012e-01 4.434233903884887695e-02 -1.614280790090560913e-01 -3.269355893135070801e-01 9.130091667175292969e-01 1.092868924140930176e+00 1.708720345050096512e-03 7.922690510749816895e-01 1.511274427175521851e-01 1.547562777996063232e-01 -3.069228306412696838e-02 1.004587650299072266e+00 1.008787274360656738e+00 9.591348767280578613e-01 3.299876153469085693e-01 4.703869223594665527e-01 1.686131805181503296e-01 5.307972431182861328e-01 6.691539287567138672e-01 5.263283252716064453e-01 4.528715908527374268e-01 1.354860663414001465e+00 1.435398817062377930e+00
6.990936994552612305e-01 6.570940017700195312e-01 6.796741485595703125e-01 -2.983977496623992920e-01 3.765842020511627197e-01 1.566810458898544312e-01 -4.358990788459777832e-01 -5.921717286109924316e-01 4.502987563610076904e-01 7.086102962493896484e-01 4.482069015502929688e-01 3.642820417881011963e-01 9.420790672302246094e-01 5.025320649147033691e-01 -3.313007652759552002e-01 -2.736497521400451660e-01 1.224808812141418457e+00 1.106854557991027832e+00 9.454188942909240723e-01 1.305076293647289276e-02 1.169278658926486969e-02 1.076223492622375488e+00 1.067841291427612305e+00 7.665452957153320312e-01 4.051847457885742188e-01 5.400084257125854492e-01 9.654141068458557129e-01 1.161385178565979004e+00
5.953510999679565430e-01 7.633481025695800781e-01 -1.286810338497161865e-01 2.902049720287322998e-01 7.180379033088684082e-01 4.431714713573455811e-01 2.317673340439796448e-02 1.950583755970001221e-01 5.598230361938476562e-01 8.972169756889343262e-01 1.190334200859069824e+00 5.249963402748107910e-01 1.072275400161743164e+00 9.810197949409484863e-01 6.299330294132232666e-02 2.870720811188220978e-02 1.238918781280517578e+00 9.106824398040771484e-01 5.532799959182739258e-01 8.308597803115844727e-01 4.455437064170837402e-01 5.825330615043640137e-01 8.344868421554565430e-01 6.622999906539916992e-01 -2.797206044197082520e-01 6.213440299034118652e-01 7.633581161499023438e-01 3.104363679885864258e-01
-1.342002535238862038e-03 7.533996552228927612e-02 2.378853857517242432e-01 2.295213751494884491e-02 2.561169862747192383e-01 -4.177443683147430420e-02 -2.693893313407897949e-01 8.182221055030822754e-01 1.272971391677856445e+00 1.312884330749511719e+00 7.628382444381713867e-01 9.134160876274108887e-01 1.424870610237121582e+00 5.099906921386718750e-01 4.288435578346252441e-01 3.501685261726379395e-01 6.402711272239685059e-01 1.299451142549514771e-01 -1.292097419500350952e-01 3.638841211795806885e-01 -4.327782616019248962e-02 5.038027763366699219e-01 1.406527310609817505e-01 3.155508935451507568e-01 1.798771917819976807e-01 1.014438033103942871e+00 8.611719012260437012e-01 7.850659489631652832e-01
-1.036398857831954956e-02 -7.925816625356674194e-02 2.917141318321228027e-01 5.230073332786560059e-01 1.542292237281799316e-01 -1.387741714715957642e-01 3.434941768646240234e-01 1.124675631523132324e+00 1.988946199417114258e+00 1.656816005706787109e+00 1.296771049499511719e+00 9.201474189758300781e-01 1.064009547233581543e+00 4.210901558399200439e-01 8.055180907249450684e-01 -9.296040236949920654e-02 5.001872777938842773e-02 -4.247845113277435303e-01 1.210602745413780212e-01 2.138299345970153809e-01 -4.886554777622222900e-01 -6.229537725448608398e-02 7.741379737854003906e-01 1.947139948606491089e-01 4.691837131977081299e-01 1.795402407646179199e+00 1.021290183067321777e+00 1.064128726720809937e-01
4.470085501670837402e-01 -1.777509599924087524e-01 2.803201079368591309e-01 5.625614523887634277e-01 7.050486281514167786e-03 3.748911321163177490e-01 4.072211086750030518e-01 8.152086138725280762e-01 1.672683000564575195e+00 1.427224278450012207e+00 1.050857231020927429e-01 8.735705912113189697e-02 5.574946403503417969e-01 7.755607366561889648e-01 5.613005757331848145e-01 4.964867606759071350e-02 9.224095940589904785e-02 -8.418613672256469727e-01 -4.825839996337890625e-01 -2.311389744281768799e-01 -8.799802511930465698e-02 -3.478179574012756348e-01 -1.733668446540832520e-01 5.736628174781799316e-01 1.434046506881713867e+00 1.988108873367309570e+00 1.376497864723205566e+00 2.133190333843231201e-01
9.154969453811645508e-01 6.652937531471252441e-01 2.768485620617866516e-02 3.942584395408630371e-01 5.104665160179138184e-01 2.161107659339904785e-01 2.902663052082061768e-01 1.193281054496765137e+00 6.857079267501831055e-01 8.224365711212158203e-01 -2.589690685272216797e-01 7.228331267833709717e-02 6.756970286369323730e-01 1.181537508964538574e+00 9.471832774579524994e-03 -1.667927503585815430e-01 -3.777069449424743652e-01 2.023823559284210205e-01 -1.071121320128440857e-01 -1.748261302709579468e-01 -4.847071468830108643e-01 -6.304234266281127930e-01 3.650813102722167969e-01 8.272621631622314453e-01 1.325125098228454590e+00 1.875123381614685059e+00 1.058414697647094727e+00 5.913474559783935547e-01
7.828617095947265625e-01 3.231185972690582275e-01 4.126203656196594238e-01 1.852134764194488525e-01 4.208802580833435059e-01 1.285858392715454102e+00 1.034667134284973145e+00 2.009020894765853882e-01 2.512534558773040771e-01 -1.338540613651275635e-01 -6.558265089988708496e-01 -4.873108267784118652e-01 9.718915820121765137e-01 1.211851239204406738e+00 9.002719521522521973e-01 4.783762395381927490e-01 8.061909079551696777e-01 1.455776840448379517e-01 5.823103189468383789e-01 -1.161253824830055237e-01 2.003127336502075195e-01 -5.739376693964004517e-02 -2.015794627368450165e-02 1.173571199178695679e-01 1.198783636093139648e+00 1.254077315330505371e+00 1.533649086952209473e+00 9.065696597099304199e-01
4.671761095523834229e-01 2.945210225880146027e-02 4.010561406612396240e-01 9.270837903022766113e-01 9.195333719253540039e-01 1.169579625129699707e+00 -4.630806297063827515e-02 -1.066575407981872559e+00 -6.562893986701965332e-01 4.027207791805267334e-01 -3.145494461059570312e-01 -8.683450818061828613e-01 6.377562284469604492e-01 1.261751890182495117e+00 7.929479479789733887e-01 4.926167130470275879e-01 9.279319047927856445e-01 9.968178272247314453e-01 5.451378226280212402e-01 1.222516417503356934e+00 4.054691493511199951e-01 -2.310848087072372437e-01 -2.609025835990905762e-01 3.861197531223297119e-01 1.372271031141281128e-01 5.511445403099060059e-01 1.134420275688171387e+00 1.328395485877990723e+00
6.377496123313903809e-01 -2.941596806049346924e-01 7.381087541580200195e-01 8.729506731033325195e-01 1.184863090515136719e+00 9.657078981399536133e-01 -7.325696200132369995e-02 -1.719538807868957520e+00 -5.977757573127746582e-01 2.925399541854858398e-01 -8.214841783046722412e-02 1.987381130456924438e-01 5.901069641113281250e-01 1.129076957702636719e+00 1.370211839675903320e+00 1.072441458702087402e+00 1.740855932235717773e+00 1.163828253746032715e+00 1.657983303070068359e+00 1.014060974121093750e+00 8.878915756940841675e-02 -4.564546942710876465e-01 -2.633424103260040283e-01 -3.604300320148468018e-02 -7.351111173629760742e-01 -5.721519589424133301e-01 5.220779180526733398e-01 1.221868038177490234e+00
3.587024807929992676e-01 -4.467295482754707336e-02 4.523232281208038330e-01 8.949683308601379395e-01 9.507213234901428223e-01 1.375182569026947021e-01 -9.047572612762451172e-01 -1.633319735527038574e+00 -4.922831058502197266e-01 -7.395293116569519043e-01 -6.163361668586730957e-01 2.233172357082366943e-01 1.505447149276733398e+00 1.645882844924926758e+00 9.593582749366760254e-01 1.144271969795227051e+00 1.335851192474365234e+00 1.627841114997863770e+00 1.204107761383056641e+00 1.388932228088378906e+00 4.317972958087921143e-01 5.845043063163757324e-01 -1.905522942543029785e-01 2.552328109741210938e-01 -2.676205635070800781e-01 -1.498087048530578613e-01 -1.089298259466886520e-02 1.445023864507675171e-01
-3.858411014080047607e-01 1.846749335527420044e-01 5.945681333541870117e-01 1.097335577011108398e+00 1.042017713189125061e-01 3.590170443058013916e-01 -6.209160685539245605e-01 -1.387528657913208008e+00 -9.655313491821289062e-01 -2.888007462024688721e-01 1.861115545034408569e-01 4.487110674381256104e-01 1.609183788299560547e+00 9.510714411735534668e-01 1.136090874671936035e+00 1.256584525108337402e+00 5.849307179450988770e-01 7.205716371536254883e-01 8.010106086730957031e-01 1.012417674064636230e+00 4.364778399467468262e-01 2.002580910921096802e-01 1.001665472984313965e+00 -1.275306195020675659e-01 -3.700597882270812988e-01 -7.622258067131042480e-01 -4.655416011810302734e-01 4.763379096984863281e-01
-3.316886126995086670e-01 -3.527457416057586670e-01 9.856495261192321777e-01 8.787723183631896973e-01 2.513151168823242188e-01 2.485458403825759888e-01 3.134147226810455322e-01 -5.912253856658935547e-01 -1.886239796876907349e-01 6.888499855995178223e-01 7.535952329635620117e-01 9.988979101181030273e-01 1.317104578018188477e+00 1.468080401420593262e+00 1.448279976844787598e+00 1.038815259933471680e+00 3.771754503250122070e-01 4.388908445835113525e-01 3.769899308681488037e-01 -5.002135410904884338e-02 -9.042228460311889648e-01 4.066253602504730225e-01 9.758281111717224121e-01 4.554721117019653320e-01 1.006577461957931519e-01 2.314026802778244019e-01 3.478505611419677734e-01 2.938312590122222900e-01
-5.494171977043151855e-01 4.363273382186889648e-01 3.221462368965148926e-01 1.115528941154479980e+00 7.503890395164489746e-01 9.609948396682739258e-01 8.080752491950988770e-01 5.315794348716735840e-01 1.011466979980468750e+00 6.296507120132446289e-01 4.754923284053802490e-02 6.844412088394165039e-01 1.422525286674499512e+00 1.380619645118713379e+00 8.757284283638000488e-01 -6.796029210090637207e-02 -7.816996574401855469e-01 -5.363031029701232910e-01 -1.803261637687683105e-01 -3.879316523671150208e-02 -7.055374979972839355e-01 -1.004756316542625427e-01 9.756237268447875977e-01 1.743944644927978516e+00 1.636880636215209961e-01 -1.096526309847831726e-01 3.780237138271331787e-01 1.288416832685470581e-01
-1.282020658254623413e-01 -1.908685564994812012e-01 2.441964596509933472e-01 8.698390722274780273e-01 4.561946690082550049e-01 9.453089237213134766e-01 9.190022349357604980e-01 1.206148266792297363e+00 9.524962902069091797e-01 2.141793668270111084e-01 5.383787155151367188e-01 1.889806091785430908e-01 1.041708230972290039e+00 8.404490947723388672e-01 1.390725970268249512e+00 5.035353899002075195e-01 -6.051247715950012207e-01 3.534629195928573608e-02 4.121773317456245422e-02 6.928567588329315186e-02 -6.029470562934875488e-01 1.482529938220977783e-01 1.009111404418945312e+00 1.247783064842224121e+00 3.985473513603210449e-01 6.881096363067626953e-01 3.885209858417510986e-01 -1.841700375080108643e-01
1.566185802221298218e-01 5.063764452934265137e-01 4.986442625522613525e-01 4.720831811428070068e-01 9.673083424568176270e-01 1.776096671819686890e-01 1.618014723062515259e-01 8.512341380119323730e-01 6.827698945999145508e-01 5.837020650506019592e-02 -2.993956208229064941e-01 4.724121838808059692e-02 1.293549537658691406e+00 1.616988062858581543e+00 1.483036041259765625e+00 3.208483755588531494e-01 2.431017458438873291e-01 5.214260816574096680e-01 7.907406091690063477e-01 -4.368996992707252502e-02 -3.244388476014137268e-02 6.507776975631713867e-01 1.265305757522583008e+00 4.270632565021514893e-01 1.221258342266082764e-01 2.518533170223236084e-01 2.319639772176742554e-01 2.076129913330078125e-01
1.433326676487922668e-02 1.242245316505432129e+00 2.714793086051940918e-01 2.878264486789703369e-01 1.473775058984756470e-01 2.937097847461700439e-01 6.307393908500671387e-01 8.533518314361572266e-01 8.080670237541198730e-01 1.863704621791839600e-01 -3.586499392986297607e-01 5.867177844047546387e-01 9.791457653045654297e-01 1.598010540008544922e+00 1.355316638946533203e+00 2.471226155757904053e-01 6.615986824035644531e-01 4.521683454513549805e-01 1.384021043777465820e+00 9.891451597213745117e-01 1.880913600325584412e-02 6.337333917617797852e-01 8.543297648429870605e-02 5.141649842262268066e-01 6.686930060386657715e-01 5.453714132308959961e-01 1.000969409942626953e+00 -2.433362007141113281e-01
4.593273103237152100e-01 1.334658145904541016e+00 4.046991933137178421e-03 -6.118798255920410156e-01 5.259402990341186523e-01 2.903788983821868896e-01 8.345854878425598145e-01 1.007729649543762207e+00 1.001534581184387207e+00 -3.017145097255706787e-01 -4.058389961719512939e-01 2.519113123416900635e-01 4.022354483604431152e-01 1.089718937873840332e+00 6.369544267654418945e-01 1.053613349795341492e-01 -2.189847081899642944e-02 4.060659408569335938e-01 1.393505692481994629e+00 1.076071381568908691e+00 6.341976523399353027e-01 3.814892470836639404e-01 3.392850160598754883e-01 1.118060111999511719e+00 2.791018486022949219e-01 2.345746457576751709e-01 5.537007451057434082e-01 1.008898735046386719e+00
6.809512376785278320e-01 8.793690204620361328e-01 3.778630793094635010e-01 -5.303783416748046875e-01 1.101282462477684021e-01 -3.348390460014343262e-01 -6.272590905427932739e-02 4.247848391532897949e-01 5.899026393890380859e-01 -5.527736544609069824e-01 2.240797132253646851e-01 3.814879059791564941e-01 4.906249344348907471e-01 8.580437302589416504e-01 -2.281216233968734741e-01 -3.741887509822845459e-01 9.271402657032012939e-02 7.490264177322387695e-01 7.694480419158935547e-01 1.642941594123840332e+00 1.310398221015930176e+00 1.256303906440734863e+00 1.653113722801208496e+00 5.232238173484802246e-01 9.233946353197097778e-02 6.426801085472106934e-01 8.556137681007385254e-01 3.021355271339416504e-01
4.115585088729858398e-01 1.736091256141662598e+00 4.974763691425323486e-01 -3.931794762611389160e-01 -4.367711842060089111e-01 -2.226852774620056152e-01 -1.074261218309402466e-01 3.511839210987091064e-01 5.320959687232971191e-01 -4.673664271831512451e-01 -1.234670653939247131e-01 2.863894104957580566e-01 6.234360337257385254e-01 8.437488079071044922e-01 1.576603949069976807e-01 2.901267111301422119e-01 5.168249011039733887e-01 -2.335700392723083496e-01 7.963433265686035156e-01 1.261120796203613281e+00 1.820604681968688965e+00 2.185276508331298828e+00 1.447791934013366699e+00 4.635052680969238281e-01 8.228671550750732422e-01 4.998439848423004150e-01 1.772076189517974854e-01 3.158033192157745361e-01
5.964557528495788574e-01 1.801126480102539062e+00 2.050620913505554199e-01 -6.270993947982788086e-01 -4.151038527488708496e-01 -1.697305291891098022e-01 5.171810463070869446e-02 6.210083365440368652e-01 4.563473537564277649e-02 -6.132291555404663086e-01 3.005525469779968262e-01 1.174503207206726074e+00 1.318382024765014648e+00 1.101011276245117188e+00 1.634864211082458496e-01 2.832321524620056152e-01 -1.302484720945358276e-01 -1.536882370710372925e-01 9.854363799095153809e-01 1.449751734733581543e+00 1.814110755920410156e+00 1.791013836860656738e+00 9.962154030799865723e-01 1.019556879997253418e+00 4.051479399204254150e-01 4.200234413146972656e-01 -1.862553413957357407e-03 -4.741085469722747803e-01
