-1.550970524549484253e-01 2.860385179519653320e-01 -1.252203345298767090e+00 -8.716365098953247070e-01 -1.263860911130905151e-01 1.849907159805297852e+00 5.717429518699645996e-01 -1.269930414855480194e-02 -3.331522941589355469e-01 1.349552273750305176e+00 1.994060754776000977e+00 1.402510523796081543e+00 2.103422731161117554e-01 4.279027581214904785e-01 -4.498232305049896240e-01 -1.406919479370117188e+00 -1.366293787956237793e+00 -1.131966114044189453e+00 1.341647654771804810e-02 5.678535103797912598e-01 1.018359303474426270e+00 1.312394499778747559e+00 1.319312691688537598e+00 1.452308416366577148e+00 1.329310774803161621e+00 2.226849317550659180e+00 1.382309436798095703e+00 5.552242994308471680e-01
8.454861491918563843e-02 1.541264504194259644e-01 -8.327457308769226074e-01 -9.468064904212951660e-01 2.166138738393783569e-01 2.101369142532348633e+00 9.041725397109985352e-01 2.971718311309814453e-01 9.908974170684814453e-02 1.117663264274597168e+00 1.678039789199829102e+00 1.538315773010253906e+00 8.630011081695556641e-01 -7.192660570144653320e-01 -1.462127208709716797e+00 -1.685287594795227051e+00 -7.054299712181091309e-01 -3.188682198524475098e-01 6.210677027702331543e-01 1.088150143623352051e+00 1.135382413864135742e+00 1.091040372848510742e+00 7.604643106460571289e-01 1.434069752693176270e+00 1.897766351699829102e+00 1.872529625892639160e+00 5.981984734535217285e-01 -7.313109636306762695e-01
-3.685638010501861572e-01 2.952370643615722656e-01 2.706950902938842773e-01 -6.639339029788970947e-02 4.812180623412132263e-02 1.520161747932434082e+00 5.154182314872741699e-01 -4.471870958805084229e-01 3.528988659381866455e-01 8.351778388023376465e-01 2.221491098403930664e+00 1.062255859375000000e+00 2.243708670139312744e-01 -9.586130976676940918e-01 -1.636495471000671387e+00 -1.391882896423339844e+00 -2.869564294815063477e-01 9.547256827354431152e-01 1.950734496116638184e+00 1.902645707130432129e+00 1.654619216918945312e+00 1.052527308464050293e+00 6.407919526100158691e-01 1.203258156776428223e+00 1.608214974403381348e+00 1.069728016853332520e+00 -6.898581981658935547e-01 -1.402750968933105469e+00
-6.129140853881835938e-01 1.178114056587219238e+00 1.074592113494873047e+00 3.979561328887939453e-01 -1.175187453627586365e-01 1.176731884479522705e-01 -1.374290287494659424e-01 -1.407844871282577515e-01 -6.257909536361694336e-01 9.671421647071838379e-01 1.459661126136779785e+00 1.366873621940612793e+00 -2.922017574310302734e-01 -1.583282709121704102e+00 -1.538842082023620605e+00 -7.542770504951477051e-01 9.289647936820983887e-01 2.652358055114746094e+00 2.996300458908081055e+00 2.514352798461914062e+00 8.835482001304626465e-01 5.268012285232543945e-01 2.911922931671142578e-01 -3.331692814826965332e-01 -3.731480240821838379e-02 -4.910061657428741455e-01 -1.710676074028015137e+00 -1.773404121398925781e+00
1.510357111692428589e-01 1.715462684631347656e+00 1.625935196876525879e+00 5.649920105934143066e-01 2.874953299760818481e-02 -9.789313673973083496e-01 -9.205683469772338867e-01 -1.038251757621765137e+00 -3.890683650970458984e-01 -1.659717597067356110e-02 2.125320672988891602e+00 9.522920846939086914e-01 2.209331989288330078e-01 -2.001977443695068359e+00 -1.333151578903198242e+00 9.540631771087646484e-01 1.851347923278808594e+00 3.190481901168823242e+00 2.756188154220581055e+00 1.665398359298706055e+00 1.725942850112915039e+00 1.412355661392211914e+00 -1.820764243602752686e-01 -4.773046374320983887e-01 -7.840101122856140137e-01 -4.563652575016021729e-01 -1.025502085685729980e+00 -1.537944555282592773e+00
-1.232235506176948547e-02 1.018270969390869141e+00 1.518684267997741699e+00 8.031429052352905273e-01 7.505295276641845703e-01 -1.372801661491394043e-01 -2.058652400970458984e+00 -2.060838699340820312e+00 -1.918935656547546387e+00 -1.951911896467208862e-01 1.172047376632690430e+00 8.777248859405517578e-01 -4.446376487612724304e-02 -8.848462104797363281e-01 -7.282398343086242676e-01 1.083270549774169922e+00 2.083044767379760742e+00 2.815331935882568359e+00 2.344329357147216797e+00 2.173039197921752930e+00 1.901391386985778809e+00 1.005196452140808105e+00 4.835037291049957275e-01 -6.122751235961914062e-01 -1.521209925413131714e-01 5.132923722267150879e-01 1.544733047485351562e-01 -1.480784654617309570e+00
-3.830590546131134033e-01 9.173356294631958008e-01 1.477798104286193848e+00 4.843493700027465820e-01 7.915345430374145508e-01 3.696469068527221680e-01 -1.220651626586914062e+00 -2.445246696472167969e+00 -2.122990131378173828e+00 -2.729094922542572021e-01 8.402267098426818848e-01 1.149026632308959961e+00 1.066048979759216309e+00 9.863174557685852051e-01 1.016709685325622559e+00 1.354429960250854492e+00 1.477302789688110352e+00 9.645400643348693848e-01 1.650500535964965820e+00 1.661171555519104004e+00 1.846401691436767578e+00 1.735342741012573242e+00 5.839582681655883789e-01 -5.546926856040954590e-01 2.385693043470382690e-01 7.013031840324401855e-01 3.346343040466308594e-01 -1.255483746528625488e+00
3.733335137367248535e-01 9.211450219154357910e-01 1.018606185913085938e+00 3.813453316688537598e-01 9.143587946891784668e-01 6.613246202468872070e-01 -9.919660687446594238e-01 -1.253105521202087402e+00 -1.721314668655395508e+00 -5.610565543174743652e-01 -4.801822900772094727e-01 5.697174072265625000e-01 4.044770896434783936e-01 1.817316651344299316e+00 1.570844888687133789e+00 7.068021297454833984e-01 8.073213100433349609e-01 7.284551858901977539e-01 9.372325539588928223e-01 1.347052931785583496e+00 1.059104561805725098e+00 1.581549167633056641e+00 9.268704652786254883e-01 -8.519976139068603516e-01 -4.844700694084167480e-01 4.745270013809204102e-01 7.538629174232482910e-01 2.570006847381591797e-01
1.200735092163085938e+00 1.683975934982299805e+00 3.496475219726562500e-01 1.300391674041748047e+00 1.549683690071105957e+00 1.116056799888610840e+00 3.260550498962402344e-01 -6.231387257575988770e-01 -8.832621574401855469e-01 4.152560830116271973e-01 -6.273695826530456543e-01 -8.805567026138305664e-02 4.395883083343505859e-01 1.155070662498474121e+00 5.271087288856506348e-01 3.780369162559509277e-01 7.746480703353881836e-01 5.159529447555541992e-01 5.958471298217773438e-01 4.380667116492986679e-03 9.159404039382934570e-01 1.680990457534790039e+00 5.296301841735839844e-01 -1.453427910804748535e+00 -9.448950886726379395e-01 2.128639966249465942e-01 4.266437590122222900e-01 1.224609255790710449e+00
2.053767442703247070e+00 1.231877088546752930e+00 1.114330172538757324e+00 9.615469574928283691e-01 1.299474358558654785e+00 1.503871083259582520e+00 2.038575112819671631e-01 -2.806343734264373779e-01 -7.338132262229919434e-01 -4.450103342533111572e-01 -1.321880221366882324e+00 -7.841120958328247070e-01 3.236565291881561279e-01 6.171465516090393066e-01 7.180676460266113281e-01 1.419315457344055176e+00 1.183638095855712891e+00 5.385777950286865234e-01 -7.068802118301391602e-01 -6.706869602203369141e-01 1.693102955818176270e+00 1.663856506347656250e+00 7.804770469665527344e-01 -1.040209412574768066e+00 -1.109885454177856445e+00 -7.604010701179504395e-01 3.994612693786621094e-01 1.916455984115600586e+00
3.021976470947265625e+00 1.458351016044616699e+00 1.238675951957702637e+00 7.743749618530273438e-01 1.405703544616699219e+00 2.257536649703979492e+00 1.834170371294021606e-01 -1.148906946182250977e+00 -1.343127608299255371e+00 -2.019832611083984375e+00 -1.886870384216308594e+00 -6.441847681999206543e-01 4.925769269466400146e-01 7.969706654548645020e-01 7.153078317642211914e-01 6.643365621566772461e-01 6.624667048454284668e-01 -2.736206650733947754e-01 -1.732274651527404785e+00 -7.485711574554443359e-01 1.220003604888916016e+00 1.250244498252868652e+00 9.671747684478759766e-01 -1.752727478742599487e-01 -4.060692191123962402e-01 -7.815556228160858154e-02 1.295051097869873047e+00 2.424415826797485352e+00
2.122438430786132812e+00 1.002492070198059082e+00 6.548298597335815430e-01 1.602262020111083984e+00 2.002681732177734375e+00 2.351378917694091797e+00 8.816137909889221191e-01 -2.180843800306320190e-01 -1.323673129081726074e+00 -1.998369932174682617e+00 -1.435086607933044434e+00 -4.961699843406677246e-01 -2.028769850730895996e-01 1.744778156280517578e-01 6.939096450805664062e-01 4.913378953933715820e-01 -3.663959503173828125e-01 -9.180631637573242188e-01 -1.305925250053405762e+00 4.199344515800476074e-01 1.135486125946044922e+00 1.725571632385253906e+00 3.658474981784820557e-01 1.760369688272476196e-01 4.256938397884368896e-01 3.097752630710601807e-01 1.128841400146484375e+00 1.523606419563293457e+00
1.562765002250671387e+00 7.961919307708740234e-01 7.952032685279846191e-01 2.017717361450195312e+00 1.833365440368652344e+00 1.571650981903076172e+00 1.126917123794555664e+00 1.098395586013793945e+00 1.900877505540847778e-01 -1.226902008056640625e-01 -8.336240053176879883e-01 -8.428293466567993164e-01 -5.018268227577209473e-01 -7.658564448356628418e-01 -6.109004020690917969e-01 -3.525781035423278809e-01 -2.628445029258728027e-01 -1.286106228828430176e+00 -1.414674878120422363e+00 5.173959732055664062e-01 1.044873714447021484e+00 1.246594548225402832e+00 2.905978262424468994e-01 1.038575917482376099e-01 3.669553101062774658e-01 1.566056758165359497e-01 1.483364582061767578e+00 1.940951228141784668e+00
3.341579437255859375e-01 6.326975226402282715e-01 5.857028961181640625e-01 1.500729441642761230e+00 1.616524457931518555e+00 1.688047885894775391e+00 1.481319189071655273e+00 1.700482845306396484e+00 2.071205139160156250e+00 7.241728305816650391e-01 -1.686398088932037354e-01 -5.813249945640563965e-01 -8.321762681007385254e-01 -1.712585687637329102e+00 -6.560460925102233887e-01 -4.325138926506042480e-01 -1.104956716299057007e-01 -5.631347894668579102e-01 -4.859023094177246094e-01 -2.068489342927932739e-01 2.792047858238220215e-01 9.682447910308837891e-01 3.308590352535247803e-01 3.642577212303876877e-03 -2.326063513755798340e-01 -1.999869495630264282e-01 3.273086249828338623e-01 9.977568387985229492e-01
1.469109654426574707e-01 -6.464097499847412109e-01 4.986482262611389160e-01 7.833710312843322754e-01 9.589170217514038086e-01 1.729123711585998535e+00 1.323664903640747070e+00 2.383220195770263672e+00 1.194094657897949219e+00 5.421683192253112793e-01 7.474673986434936523e-01 6.322824954986572266e-01 7.255581021308898926e-01 -5.975241065025329590e-01 3.021113574504852295e-01 -2.839869856834411621e-01 4.060973525047302246e-01 2.047189623117446899e-01 -4.401800334453582764e-01 -4.192530810832977295e-01 -8.201106637716293335e-02 2.369068711996078491e-01 5.203428268432617188e-01 6.612141132354736328e-01 -8.326976299285888672e-01 -2.005292177200317383e-01 8.183505535125732422e-01 4.289899468421936035e-01
-1.339583098888397217e-01 -2.516841292381286621e-01 -4.238561093807220459e-01 5.868517756462097168e-01 7.915434241294860840e-01 1.269136428833007812e+00 1.963015437126159668e+00 2.228267192840576172e+00 1.410000324249267578e+00 7.955551147460937500e-01 7.441551685333251953e-01 7.360580563545227051e-01 1.329556584358215332e+00 1.444651126861572266e+00 1.081516742706298828e+00 -1.122222691774368286e-01 6.689503788948059082e-02 -2.343742400407791138e-01 -1.385921597480773926e+00 -1.983267903327941895e+00 -1.274421811103820801e+00 4.550804495811462402e-01 1.146247744560241699e+00 6.987299323081970215e-01 -4.950706362724304199e-01 -6.975241899490356445e-01 3.325588703155517578e-01 8.166207075119018555e-01
-1.474692374467849731e-01 -9.870950579643249512e-01 -1.025792121887207031e+00 -2.570900022983551025e-01 1.179822325706481934e+00 1.977653861045837402e+00 1.907240033149719238e+00 2.276527404785156250e+00 1.477072358131408691e+00 1.309092760086059570e+00 4.919264614582061768e-01 1.786615014076232910e+00 1.518054723739624023e+00 1.922020673751831055e+00 9.196749329566955566e-01 -1.464794855564832687e-03 4.448496401309967041e-01 -1.360631823539733887e+00 -2.102546215057373047e+00 -2.695491552352905273e+00 -7.453134655952453613e-01 1.001891970634460449e+00 1.741132020950317383e+00 8.659225106239318848e-01 -9.415859580039978027e-01 -7.120945453643798828e-01 7.365884631872177124e-02 1.096609473228454590e+00
5.240542441606521606e-02 -8.788771629333496094e-01 -7.731025218963623047e-01 7.311063408851623535e-01 1.109356760978698730e+00 1.371130466461181641e+00 1.886526942253112793e+00 1.840880036354064941e+00 2.446173191070556641e+00 1.455689191818237305e+00 4.244167506694793701e-01 1.994488358497619629e+00 1.995556473731994629e+00 1.121669650077819824e+00 2.107138782739639282e-01 7.642488181591033936e-02 -2.581445574760437012e-01 -1.460018992424011230e+00 -2.448774814605712891e+00 -2.083572387695312500e+00 -4.697843790054321289e-01 1.453313946723937988e+00 2.000832080841064453e+00 -6.057551503181457520e-01 -1.793532252311706543e+00 -1.223398089408874512e+00 6.361106634140014648e-01 1.210743784904479980e+00
-6.493726968765258789e-01 -6.102228760719299316e-01 7.265520095825195312e-01 5.404281616210937500e-01 6.274229288101196289e-01 1.267752498388290405e-01 9.617858529090881348e-01 2.215548276901245117e+00 2.590932369232177734e+00 1.800547480583190918e+00 1.244856476783752441e+00 1.810042858123779297e+00 1.506036281585693359e+00 1.105667427182197571e-01 4.806228578090667725e-01 -2.209901660680770874e-01 1.991775184869766235e-01 -1.543324470520019531e+00 -2.069339513778686523e+00 -9.417498111724853516e-01 1.048276901245117188e+00 2.115271091461181641e+00 1.320561647415161133e+00 -1.194744586944580078e+00 -1.222030282020568848e+00 -7.310367226600646973e-01 4.007032811641693115e-01 2.984412610530853271e-01
-7.003771513700485229e-02 -1.385679543018341064e-01 -2.537250332534313202e-02 3.914285302162170410e-01 4.074586927890777588e-01 8.630173802375793457e-01 1.339957714080810547e+00 1.444845199584960938e+00 1.451241850852966309e+00 9.487817883491516113e-01 1.389946699142456055e+00 1.926125884056091309e+00 8.198178410530090332e-01 4.975404217839241028e-02 -1.022041514515876770e-01 3.605499565601348877e-01 -3.025713264942169189e-01 -1.245006442070007324e+00 -9.949836134910583496e-01 -5.325259566307067871e-01 1.026502728462219238e+00 2.042677164077758789e+00 6.361946463584899902e-01 -5.166371464729309082e-01 -1.213182568550109863e+00 1.647072657942771912e-02 -5.172310397028923035e-03 3.657283484935760498e-01
-1.048675626516342163e-01 2.166818268597126007e-02 -7.198069691658020020e-01 -2.292847335338592529e-01 1.033462166786193848e+00 1.585850238800048828e+00 7.351772189140319824e-01 6.727795600891113281e-01 5.138066038489341736e-02 -8.851775527000427246e-01 1.132505416870117188e+00 1.544252634048461914e+00 8.197340965270996094e-01 2.900409102439880371e-01 8.858147263526916504e-02 1.052657485008239746e+00 5.199106335639953613e-01 -4.293926954269409180e-01 -2.396279424428939819e-01 2.293856590986251831e-01 8.623085021972656250e-01 1.547893881797790527e+00 1.331534862518310547e+00 4.251163303852081299e-01 -4.315655827522277832e-01 3.429658114910125732e-01 9.199858903884887695e-01 5.926591157913208008e-01
1.146996974945068359e+00 1.673237793147563934e-02 -4.844238460063934326e-01 -3.539488911628723145e-01 1.480375766754150391e+00 2.343867063522338867e+00 1.418940305709838867e+00 2.542157471179962158e-01 -9.257994890213012695e-01 -1.058240056037902832e+00 -5.197814702987670898e-01 6.247321367263793945e-01 2.621105313301086426e-01 7.155016064643859863e-01 4.106089770793914795e-01 1.283248513936996460e-01 -2.089380752295255661e-03 6.831629276275634766e-01 7.083807587623596191e-01 4.772274494171142578e-01 6.584192514419555664e-01 1.336644291877746582e+00 1.142876148223876953e+00 2.762550413608551025e-01 3.781856000423431396e-01 4.621390402317047119e-01 5.797299742698669434e-01 1.117527246475219727e+00
1.133967757225036621e+00 8.562730550765991211e-01 -9.580879211425781250e-01 3.944045305252075195e-02 2.018790960311889648e+00 2.702478408813476562e+00 1.676786899566650391e+00 1.396334171295166016e-02 -6.103495955467224121e-01 -7.817870378494262695e-01 2.074079364538192749e-01 1.865606755018234253e-01 -4.526820182800292969e-01 -4.363792538642883301e-01 1.563378870487213135e-01 7.269198894500732422e-01 -9.813666343688964844e-03 -7.119419984519481659e-03 -5.719761848449707031e-01 1.485312730073928833e-01 4.944283664226531982e-01 1.596309661865234375e+00 9.080791473388671875e-01 3.776368200778961182e-01 -3.828567266464233398e-02 2.147956341505050659e-01 7.427000403404235840e-01 1.103345155715942383e+00
1.240316987037658691e+00 4.599881470203399658e-01 4.340561628341674805e-01 1.182854533195495605e+00 1.954851269721984863e+00 2.082939147949218750e+00 1.918781876564025879e+00 9.554924964904785156e-01 4.115668535232543945e-01 2.119867205619812012e-01 7.057926654815673828e-01 -8.638993650674819946e-02 -1.627152711153030396e-01 -7.229861617088317871e-01 -2.893150784075260162e-02 6.245652586221694946e-02 -8.230902254581451416e-02 -6.524149328470230103e-02 -3.119151890277862549e-01 -2.514805495738983154e-01 2.914592027664184570e-01 1.417078137397766113e+00 1.150321841239929199e+00 4.467705488204956055e-01 2.331300675868988037e-01 1.819117218255996704e-01 7.252627015113830566e-01 1.383068084716796875e+00
5.919424891471862793e-01 5.079729557037353516e-01 4.030993878841400146e-01 7.850901484489440918e-01 1.888001322746276855e+00 2.597939014434814453e+00 1.426834225654602051e+00 1.323218107223510742e+00 5.399753451347351074e-01 1.015963435173034668e+00 1.282206416130065918e+00 2.024489045143127441e-01 -8.737774193286895752e-02 -6.850376129150390625e-01 2.459880709648132324e-01 -2.007244676351547241e-01 4.585467576980590820e-01 -5.418484807014465332e-01 -5.662973523139953613e-01 -4.034294486045837402e-01 3.933193683624267578e-01 6.504425406455993652e-01 1.182183742523193359e+00 6.911816596984863281e-01 8.474246859550476074e-01 3.698474168777465820e-02 -2.014581263065338135e-01 -6.390827149152755737e-02
1.873405463993549347e-02 -3.724501430988311768e-01 -1.644669771194458008e-01 1.162485703825950623e-01 1.592288374900817871e+00 1.287129759788513184e+00 1.552988886833190918e+00 8.185734748840332031e-01 1.354725241661071777e+00 8.796505928039550781e-01 6.442961096763610840e-01 7.389185428619384766e-01 4.715830087661743164e-01 3.415961191058158875e-02 -2.953060269355773926e-01 2.125736624002456665e-01 -2.760055363178253174e-01 4.022538065910339355e-01 -3.582428693771362305e-01 -3.100977838039398193e-01 6.010272502899169922e-01 9.414761662483215332e-01 1.296605587005615234e+00 9.318011403083801270e-01 1.289046406745910645e+00 4.342750906944274902e-01 1.599393784999847412e-01 -4.764075577259063721e-01
2.473279833793640137e-02 -6.391428709030151367e-01 -4.279896020889282227e-01 -4.561370313167572021e-01 1.014803171157836914e+00 1.640664458274841309e+00 9.628629684448242188e-01 5.899933576583862305e-01 1.084824562072753906e+00 1.327726840972900391e+00 4.749347865581512451e-01 3.484694957733154297e-01 -6.222158297896385193e-02 5.257015824317932129e-01 -3.069031238555908203e-01 4.632145911455154419e-02 -3.891033530235290527e-01 3.926431238651275635e-01 1.021502539515495300e-01 -1.087418757379055023e-02 1.423068642616271973e-01 1.227880835533142090e+00 1.028948903083801270e+00 8.460586667060852051e-01 1.255756735801696777e+00 6.940659284591674805e-01 1.662760227918624878e-01 4.428924024105072021e-01
4.425342008471488953e-02 -2.983172535896301270e-01 -4.867088794708251953e-01 -7.562832832336425781e-01 2.429637014865875244e-01 1.215893983840942383e+00 1.154471993446350098e+00 -3.081823289394378662e-01 7.534717321395874023e-01 1.050618767738342285e+00 1.602485537528991699e+00 7.588903903961181641e-01 5.759443640708923340e-01 6.841011643409729004e-01 -2.116716951131820679e-01 -8.841383457183837891e-01 -9.363796114921569824e-01 -9.912780672311782837e-02 -4.672682285308837891e-01 8.398906588554382324e-01 8.234144449234008789e-01 1.746746301651000977e+00 7.396600246429443359e-01 6.994007825851440430e-01 1.662783741950988770e+00 8.402066230773925781e-01 1.397416234016418457e+00 4.337278902530670166e-01
